digraph Tree {
node [shape=box, style="filled, rounded", color="black", fontname=helvetica] ;
edge [fontname=helvetica] ;
0 [label="Total_Amount_of_Payment_USDollars <= -0.11\ngini = 0.5\nsamples = 24232\nvalue = [12116, 12116]\nclass = general_payment", fillcolor="#e5813900"] ;
1 [label="x5_Cash or cash equivalent <= 0.5\ngini = 0.18\nsamples = 10462\nvalue = [9447, 1015]\nclass = general_payment", fillcolor="#e58139e4"] ;
0 -> 1 [labeldistance=2.5, labelangle=45, headlabel="True"] ;
2 [label="Total_Amount_of_Payment_USDollars <= -0.11\ngini = 0.08\nsamples = 8812\nvalue = [8457, 355]\nclass = general_payment", fillcolor="#e58139f4"] ;
1 -> 2 ;
3 [label="Total_Amount_of_Payment_USDollars <= -0.11\ngini = 0.06\nsamples = 8550\nvalue = [8266, 284]\nclass = general_payment", fillcolor="#e58139f6"] ;
2 -> 3 ;
4 [label="gini = 0.11\nsamples = 2900\nvalue = [2735, 165]\nclass = general_payment", fillcolor="#e58139f0"] ;
3 -> 4 ;
5 [label="gini = 0.04\nsamples = 5650\nvalue = [5531, 119]\nclass = general_payment", fillcolor="#e58139fa"] ;
3 -> 5 ;
6 [label="x16_one <= 0.5\ngini = 0.4\nsamples = 262\nvalue = [191, 71]\nclass = general_payment", fillcolor="#e58139a0"] ;
2 -> 6 ;
7 [label="gini = 0.35\nsamples = 248\nvalue = [191, 57]\nclass = general_payment", fillcolor="#e58139b3"] ;
6 -> 7 ;
8 [label="gini = 0.0\nsamples = 14\nvalue = [0, 14]\nclass = research_payment", fillcolor="#399de5ff"] ;
6 -> 8 ;
9 [label="Total_Amount_of_Payment_USDollars <= -0.11\ngini = 0.48\nsamples = 1650\nvalue = [990, 660]\nclass = general_payment", fillcolor="#e5813955"] ;
1 -> 9 ;
10 [label="Total_Amount_of_Payment_USDollars <= -0.11\ngini = 0.44\nsamples = 275\nvalue = [90, 185]\nclass = research_payment", fillcolor="#399de583"] ;
9 -> 10 ;
11 [label="gini = 0.12\nsamples = 93\nvalue = [87, 6]\nclass = general_payment", fillcolor="#e58139ed"] ;
10 -> 11 ;
12 [label="gini = 0.03\nsamples = 182\nvalue = [3, 179]\nclass = research_payment", fillcolor="#399de5fb"] ;
10 -> 12 ;
13 [label="Total_Amount_of_Payment_USDollars <= -0.11\ngini = 0.45\nsamples = 1375\nvalue = [900, 475]\nclass = general_payment", fillcolor="#e5813978"] ;
9 -> 13 ;
14 [label="gini = 0.42\nsamples = 1208\nvalue = [841, 367]\nclass = general_payment", fillcolor="#e5813990"] ;
13 -> 14 ;
15 [label="gini = 0.46\nsamples = 167\nvalue = [59, 108]\nclass = research_payment", fillcolor="#399de574"] ;
13 -> 15 ;
16 [label="Total_Amount_of_Payment_USDollars <= -0.11\ngini = 0.31\nsamples = 13770\nvalue = [2669, 11101]\nclass = research_payment", fillcolor="#399de5c2"] ;
0 -> 16 [labeldistance=2.5, labelangle=-45, headlabel="False"] ;
17 [label="x5_Cash or cash equivalent <= 0.5\ngini = 0.5\nsamples = 3469\nvalue = [1706, 1763]\nclass = research_payment", fillcolor="#399de508"] ;
16 -> 17 ;
18 [label="Total_Amount_of_Payment_USDollars <= -0.11\ngini = 0.47\nsamples = 2148\nvalue = [1350, 798]\nclass = general_payment", fillcolor="#e5813968"] ;
17 -> 18 ;
19 [label="gini = 0.48\nsamples = 792\nvalue = [327, 465]\nclass = research_payment", fillcolor="#399de54c"] ;
18 -> 19 ;
20 [label="gini = 0.37\nsamples = 1356\nvalue = [1023, 333]\nclass = general_payment", fillcolor="#e58139ac"] ;
18 -> 20 ;
21 [label="Total_Amount_of_Payment_USDollars <= -0.11\ngini = 0.39\nsamples = 1321\nvalue = [356, 965]\nclass = research_payment", fillcolor="#399de5a1"] ;
17 -> 21 ;
22 [label="gini = 0.5\nsamples = 152\nvalue = [75, 77]\nclass = research_payment", fillcolor="#399de507"] ;
21 -> 22 ;
23 [label="gini = 0.37\nsamples = 1169\nvalue = [281, 888]\nclass = research_payment", fillcolor="#399de5ae"] ;
21 -> 23 ;
24 [label="x5_Cash or cash equivalent <= 0.5\ngini = 0.17\nsamples = 10301\nvalue = [963, 9338]\nclass = research_payment", fillcolor="#399de5e5"] ;
16 -> 24 ;
25 [label="Total_Amount_of_Payment_USDollars <= -0.07\ngini = 0.38\nsamples = 1496\nvalue = [383, 1113]\nclass = research_payment", fillcolor="#399de5a7"] ;
24 -> 25 ;
26 [label="gini = 0.48\nsamples = 904\nvalue = [357, 547]\nclass = research_payment", fillcolor="#399de559"] ;
25 -> 26 ;
27 [label="gini = 0.08\nsamples = 592\nvalue = [26, 566]\nclass = research_payment", fillcolor="#399de5f3"] ;
25 -> 27 ;
28 [label="Total_Amount_of_Payment_USDollars <= 0.07\ngini = 0.12\nsamples = 8805\nvalue = [580, 8225]\nclass = research_payment", fillcolor="#399de5ed"] ;
24 -> 28 ;
29 [label="gini = 0.14\nsamples = 6919\nvalue = [524, 6395]\nclass = research_payment", fillcolor="#399de5ea"] ;
28 -> 29 ;
30 [label="gini = 0.06\nsamples = 1886\nvalue = [56, 1830]\nclass = research_payment", fillcolor="#399de5f7"] ;
28 -> 30 ;
}